svm_type c_svc
kernel_type rbf
gamma 0.166667
nr_class 2
total_sv 32
rho -0.164685
label 0 1
nr_sv 18 14
SV
0.8336439248021978 1:56.656 2:-4.984 3:-9.756 4:0.184025 5:-0.15484552 6:-0.44784455 
0.7388395609221594 1:61.298624 2:-3.344877 3:-6.5474759 4:0.0070309876 5:-0.096417324 6:-0.44784455 
0.2203730634699579 1:61.425445 2:-2.0072488 3:-3.9291169 4:-0.034976364 5:0.05491471 6:-0.44784455 
0.3400592860960677 1:61.481702 2:-1.672932 3:-3.2747039 4:0.26856617 5:-0.21527403 6:-0.44784455 
0.1210318140675995 1:61.477927 2:-1.4341068 3:-2.8072123 4:-0.042688167 5:0.099265335 6:-0.44784455 
0.1456135872503507 1:61.277172 2:-0.088137567 3:-0.1725261 4:-0.13561672 5:0.20878449 6:-0.44784455 
0.07863987249810835 1:61.357381 2:-0.084434554 3:-0.16527759 4:0.050026132 5:-0.21522051 6:-0.44784455 
0.2985741973641537 1:61.357173 2:-0.081030153 3:-0.1586136 4:0.20769939 5:-0.10384688 6:-0.44784455 
0.1672100568317532 1:61.337237 2:-0.077889642 3:-0.15246616 4:-0.12830257 5:0.089169437 6:-0.44784455 
0.8351688967834661 1:57.416 2:-23.248 3:1.168 4:0.063667991 5:0.020252682 6:-0.027014835 
0.7865303647803824 1:58.513664 2:-15.602267 3:0.78387166 4:0.053188377 5:-0.085297973 6:-0.027014835 
0.6164798215951255 1:58.350055 2:-11.702013 3:0.58791942 4:-0.09462541 5:-0.026348318 6:-0.027014835 
0.3404295728382763 1:58.4094 2:-9.362865 3:0.47039858 4:-0.25035855 5:0.16991717 6:-0.027014835 
0.2893999492809043 1:58.489638 2:-7.8034355 3:0.39205147 4:0.080602562 5:-0.059258333 6:-0.027014835 
0.5624721692334745 1:58.316984 2:-5.8538123 3:0.29410069 4:-0.22022154 5:0.25318933 6:-0.027014835 
0.036493120673737 1:58.662245 2:-4.683739 3:0.23531517 4:0.12476947 5:-0.089986415 6:-0.027014835 
0.1295565492590299 1:58.567535 2:-2.7558901 3:0.13845835 4:-0.20223379 5:0.27531545 6:-0.027014835 
0.728409384208542 1:58.55427 2:-2.6028451 3:0.13076923 4:0.12988584 5:-0.0319545 6:-0.027014835 
-1 1:52.088 2:-22.932 3:-11.252 4:0.053465617 5:-0.14272802 6:-0.14974084 
-1 1:54.764352 2:-15.390193 3:-7.5514759 4:-0.15782977 5:-0.14235035 6:-0.14974084 
-0.952242213130023 1:55.699057 2:-11.542952 3:-5.663758 4:-0.3557701 5:0.057089624 6:-0.14974084 
-0.4658020433184675 1:55.326796 2:-9.2355996 3:-4.5316138 4:0.19549707 5:-0.068486942 6:-0.14974084 
-0.6266136017308018 1:55.985307 2:-7.6973668 3:-3.776852 4:0.050387132 5:0.09467641 6:-0.14974084 
-0.1553188420752984 1:55.591941 2:-6.5985027 3:-3.2376745 4:0.033476704 5:0.023674375 6:-0.14974084 
-0.565278121989933 1:54.411529 2:-5.1330718 3:-2.5186344 4:-0.15366185 5:-0.090615033 6:-0.14974084 
-0.3738354624219055 1:55.902871 2:-4.2003075 3:-2.0609568 4:-0.011537614 5:0.19499612 6:-0.14974084 
-0.4910919755604061 1:55.797208 2:-3.3006642 3:-1.6195305 4:0.0054052543 5:-0.056845387 6:-0.14974084 
-0.06117939812868728 1:53.395953 2:-1.9257923 3:-0.94492478 4:-0.08560309 5:-0.00069715045 6:-0.14974084 
-0.5353061479424207 1:55.506393 2:-0.90640603 3:-0.44474449 4:0.028396479 5:-0.18211928 6:-0.14974084 
-0.2454419097853676 1:55.47683 2:-0.85605736 3:-0.42004001 4:-0.025549778 5:0.18689258 6:-0.14974084 
-0.2476482784619636 1:53.019566 2:-0.77046271 3:-0.37804145 4:-0.07939976 5:0.070628385 6:-0.14974084 
-0.5491671974100121 1:53.036078 2:-0.75783379 3:-0.37184484 4:-0.28055054 5:0.12453046 6:-0.14974084 
